<?xml version="1.0"?>
<opencv_storage>
<stage12>
  <maxWeakCount>17</maxWeakCount>
  <stageThreshold>-9.6987271308898926e-01</stageThreshold>
  <weakClassifiers>
    <_>
      <internalNodes>
        0 -1 99525 -7.3570102453231812e-02</internalNodes>
      <leafValues>
        4.8275861144065857e-01 -4.0822786092758179e-01</leafValues></_>
    <_>
      <internalNodes>
        0 -1 133892 -1.3814916834235191e-02</internalNodes>
      <leafValues>
        3.1981450319290161e-01 -2.7390632033348083e-01</leafValues></_>
    <_>
      <internalNodes>
        0 -1 154528 -3.1860650051385164e-04</internalNodes>
      <leafValues>
        -5.2226680517196655e-01 2.0933498442173004e-01</leafValues></_>
    <_>
      <internalNodes>
        0 -1 31602 1.1343710124492645e-01</internalNodes>
      <leafValues>
        8.8779836893081665e-02 -8.1226116418838501e-01</leafValues></_>
    <_>
      <internalNodes>
        0 -1 4653 3.3403011038899422e-03</internalNodes>
      <leafValues>
        -3.2584887742996216e-01 2.5936725735664368e-01</leafValues></_>
    <_>
      <internalNodes>
        0 -1 114796 -2.2315539419651031e-02</internalNodes>
      <leafValues>
        -6.4780771732330322e-01 1.1515430361032486e-01</leafValues></_>
    <_>
      <internalNodes>
        0 -1 15837 1.1807711794972420e-02</internalNodes>
      <leafValues>
        2.0895537734031677e-01 -4.3934711813926697e-01</leafValues></_>
    <_>
      <internalNodes>
        0 -1 67691 1.2065826449543238e-03</internalNodes>
      <leafValues>
        -2.2038049995899200e-01 3.7221994996070862e-01</leafValues></_>
    <_>
      <internalNodes>
        0 -1 154528 5.7298527099192142e-04</internalNodes>
      <leafValues>
        1.2702982127666473e-01 -5.6009531021118164e-01</leafValues></_>
    <_>
      <internalNodes>
        0 -1 138272 -2.7799577219411731e-04</internalNodes>
      <leafValues>
        3.4198155999183655e-01 -2.3095786571502686e-01</leafValues></_>
    <_>
      <internalNodes>
        0 -1 2903 -1.3120824098587036e-01</internalNodes>
      <leafValues>
        -8.4185296297073364e-01 1.0837060213088989e-01</leafValues></_>
    <_>
      <internalNodes>
        0 -1 2185 2.8486340306699276e-03</internalNodes>
      <leafValues>
        -2.9830896854400635e-01 2.9941394925117493e-01</leafValues></_>
    <_>
      <internalNodes>
        0 -1 160352 -5.7266578078269958e-03</internalNodes>
      <leafValues>
        -8.4812784194946289e-01 8.6534708738327026e-02</leafValues></_>
    <_>
      <internalNodes>
        0 -1 70538 -6.0172051191329956e-02</internalNodes>
      <leafValues>
        9.2329496145248413e-01 -1.0499118268489838e-01</leafValues></_>
    <_>
      <internalNodes>
        0 -1 104351 -1.0831964761018753e-01</internalNodes>
      <leafValues>
        -4.7463592886924744e-01 1.8390068411827087e-01</leafValues></_>
    <_>
      <internalNodes>
        0 -1 12243 3.8968420121818781e-03</internalNodes>
      <leafValues>
        1.1251318454742432e-01 -7.1687668561935425e-01</leafValues></_>
    <_>
      <internalNodes>
        0 -1 113926 3.2798881875351071e-04</internalNodes>
      <leafValues>
        1.1198408901691437e-01 -5.6615710258483887e-01</leafValues></_></weakClassifiers></stage12>
</opencv_storage>
