<?xml version="1.0"?>
<opencv_storage>
<stage19>
  <maxWeakCount>15</maxWeakCount>
  <stageThreshold>-8.6340987682342529e-01</stageThreshold>
  <weakClassifiers>
    <_>
      <internalNodes>
        0 -1 126400 -2.6021236553788185e-02</internalNodes>
      <leafValues>
        -1.8330308794975281e-01 -9.2805755138397217e-01</leafValues></_>
    <_>
      <internalNodes>
        0 -1 151794 1.8723533139564097e-04</internalNodes>
      <leafValues>
        -2.6460844278335571e-01 3.3787795901298523e-01</leafValues></_>
    <_>
      <internalNodes>
        0 -1 48968 -9.9916651844978333e-02</internalNodes>
      <leafValues>
        7.7572301030158997e-02 -1.</leafValues></_>
    <_>
      <internalNodes>
        0 -1 9519 -1.4308235049247742e-01</internalNodes>
      <leafValues>
        -1.3390083611011505e-01 6.4938968420028687e-01</leafValues></_>
    <_>
      <internalNodes>
        0 -1 139232 -2.2911904379725456e-03</internalNodes>
      <leafValues>
        -5.4557877779006958e-01 1.3811831176280975e-01</leafValues></_>
    <_>
      <internalNodes>
        0 -1 3279 3.7461924366652966e-03</internalNodes>
      <leafValues>
        -2.1866980195045471e-01 3.8363474607467651e-01</leafValues></_>
    <_>
      <internalNodes>
        0 -1 113824 -3.7535077426582575e-03</internalNodes>
      <leafValues>
        -6.5584951639175415e-01 1.2645928561687469e-01</leafValues></_>
    <_>
      <internalNodes>
        0 -1 134679 -7.8999519348144531e-02</internalNodes>
      <leafValues>
        1.9990174472332001e-01 -4.3096959590911865e-01</leafValues></_>
    <_>
      <internalNodes>
        0 -1 140479 3.1300719827413559e-02</internalNodes>
      <leafValues>
        -1.1935336142778397e-01 6.2890291213989258e-01</leafValues></_>
    <_>
      <internalNodes>
        0 -1 84976 -1.7545318603515625e-01</internalNodes>
      <leafValues>
        -1.6067367792129517e-01 5.7849729061126709e-01</leafValues></_>
    <_>
      <internalNodes>
        0 -1 24097 7.9977989662438631e-04</internalNodes>
      <leafValues>
        -2.0208694040775299e-01 4.1271695494651794e-01</leafValues></_>
    <_>
      <internalNodes>
        0 -1 35651 9.4053996726870537e-03</internalNodes>
      <leafValues>
        1.7822262644767761e-01 -5.8894151449203491e-01</leafValues></_>
    <_>
      <internalNodes>
        0 -1 85872 7.5498344376683235e-03</internalNodes>
      <leafValues>
        -2.2504287958145142e-01 4.1136842966079712e-01</leafValues></_>
    <_>
      <internalNodes>
        0 -1 154524 -4.4155266368761659e-04</internalNodes>
      <leafValues>
        4.5501533150672913e-01 -1.8006677925586700e-01</leafValues></_>
    <_>
      <internalNodes>
        0 -1 151485 2.9339900356717408e-04</internalNodes>
      <leafValues>
        1.8541416525840759e-01 -4.9033766984939575e-01</leafValues></_></weakClassifiers></stage19>
</opencv_storage>
