<?xml version="1.0"?>
<opencv_storage>
<stage15>
  <maxWeakCount>17</maxWeakCount>
  <stageThreshold>-1.1125752925872803e+00</stageThreshold>
  <weakClassifiers>
    <_>
      <internalNodes>
        0 -1 115870 -2.0381689071655273e-02</internalNodes>
      <leafValues>
        4.7368422150611877e-01 -4.3322476744651794e-01</leafValues></_>
    <_>
      <internalNodes>
        0 -1 143499 3.4116092137992382e-04</internalNodes>
      <leafValues>
        1.6461914777755737e-01 -5.5596292018890381e-01</leafValues></_>
    <_>
      <internalNodes>
        0 -1 137624 -1.0054004378616810e-03</internalNodes>
      <leafValues>
        3.7740403413772583e-01 -2.3148703575134277e-01</leafValues></_>
    <_>
      <internalNodes>
        0 -1 45165 -8.2237310707569122e-03</internalNodes>
      <leafValues>
        -8.9025443792343140e-01 1.0224681347608566e-01</leafValues></_>
    <_>
      <internalNodes>
        0 -1 15381 3.1593188177794218e-03</internalNodes>
      <leafValues>
        1.7186531424522400e-01 -4.8265996575355530e-01</leafValues></_>
    <_>
      <internalNodes>
        0 -1 13390 -2.0458150655031204e-02</internalNodes>
      <leafValues>
        -8.9632916450500488e-01 8.7195053696632385e-02</leafValues></_>
    <_>
      <internalNodes>
        0 -1 58506 -5.5093981791287661e-04</internalNodes>
      <leafValues>
        5.3966921567916870e-01 -1.6174881160259247e-01</leafValues></_>
    <_>
      <internalNodes>
        0 -1 71288 -4.0146932005882263e-02</internalNodes>
      <leafValues>
        -6.2960988283157349e-01 1.0130377858877182e-01</leafValues></_>
    <_>
      <internalNodes>
        0 -1 7821 -2.9050177335739136e-01</internalNodes>
      <leafValues>
        8.7183378636837006e-02 -9.8301303386688232e-01</leafValues></_>
    <_>
      <internalNodes>
        0 -1 23627 -1.2442316859960556e-02</internalNodes>
      <leafValues>
        -2.8626805543899536e-01 3.5440474748611450e-01</leafValues></_>
    <_>
      <internalNodes>
        0 -1 79333 -2.2742047440260649e-04</internalNodes>
      <leafValues>
        -4.5979243516921997e-01 2.0826345682144165e-01</leafValues></_>
    <_>
      <internalNodes>
        0 -1 87541 6.0173973906785250e-04</internalNodes>
      <leafValues>
        -1.9064442813396454e-01 4.8395824432373047e-01</leafValues></_>
    <_>
      <internalNodes>
        0 -1 113946 1.4510701876133680e-03</internalNodes>
      <leafValues>
        1.4212054014205933e-01 -7.1344685554504395e-01</leafValues></_>
    <_>
      <internalNodes>
        0 -1 147694 2.7683860389515758e-04</internalNodes>
      <leafValues>
        -2.6738694310188293e-01 4.0613743662834167e-01</leafValues></_>
    <_>
      <internalNodes>
        0 -1 96562 1.3505737297236919e-02</internalNodes>
      <leafValues>
        -2.0662440359592438e-01 4.4380041956901550e-01</leafValues></_>
    <_>
      <internalNodes>
        0 -1 150483 2.5581941008567810e-04</internalNodes>
      <leafValues>
        2.1749246120452881e-01 -4.3296653032302856e-01</leafValues></_>
    <_>
      <internalNodes>
        0 -1 138819 -1.3856064528226852e-02</internalNodes>
      <leafValues>
        7.1604126691818237e-01 -1.4924825727939606e-01</leafValues></_></weakClassifiers></stage15>
</opencv_storage>
