<?xml version="1.0"?>
<opencv_storage>
<stage21>
  <maxWeakCount>17</maxWeakCount>
  <stageThreshold>-1.0000710487365723e+00</stageThreshold>
  <weakClassifiers>
    <_>
      <internalNodes>
        0 -1 18945 5.5257201194763184e-02</internalNodes>
      <leafValues>
        -3.9236640930175781e-01 7.7142858505249023e-01</leafValues></_>
    <_>
      <internalNodes>
        0 -1 155045 -1.6735175158828497e-03</internalNodes>
      <leafValues>
        3.7339848279953003e-01 -2.3592410981655121e-01</leafValues></_>
    <_>
      <internalNodes>
        0 -1 42632 5.2247429266571999e-04</internalNodes>
      <leafValues>
        -2.6720786094665527e-01 2.8177359700202942e-01</leafValues></_>
    <_>
      <internalNodes>
        0 -1 138192 -1.8761187791824341e-02</internalNodes>
      <leafValues>
        6.2337273359298706e-01 -1.1074223369359970e-01</leafValues></_>
    <_>
      <internalNodes>
        0 -1 120542 3.7697425577789545e-03</internalNodes>
      <leafValues>
        -1.2499279528856277e-01 5.8607023954391479e-01</leafValues></_>
    <_>
      <internalNodes>
        0 -1 106447 -4.9341714475303888e-04</internalNodes>
      <leafValues>
        -5.2631187438964844e-01 1.4206618070602417e-01</leafValues></_>
    <_>
      <internalNodes>
        0 -1 112248 -2.1026353538036346e-01</internalNodes>
      <leafValues>
        -3.2098466157913208e-01 2.4992379546165466e-01</leafValues></_>
    <_>
      <internalNodes>
        0 -1 130187 -4.1450716555118561e-02</internalNodes>
      <leafValues>
        6.5620988607406616e-01 -1.4114293456077576e-01</leafValues></_>
    <_>
      <internalNodes>
        0 -1 120563 -3.1758454861119390e-04</internalNodes>
      <leafValues>
        4.9931293725967407e-01 -1.7250488698482513e-01</leafValues></_>
    <_>
      <internalNodes>
        0 -1 119628 1.5809372998774052e-03</internalNodes>
      <leafValues>
        -2.6012617349624634e-01 3.5026779770851135e-01</leafValues></_>
    <_>
      <internalNodes>
        0 -1 140596 -4.7702591866254807e-02</internalNodes>
      <leafValues>
        6.2161642313003540e-01 -1.2502278387546539e-01</leafValues></_>
    <_>
      <internalNodes>
        0 -1 148404 -5.6033022701740265e-03</internalNodes>
      <leafValues>
        3.7119668722152710e-01 -2.2701044380664825e-01</leafValues></_>
    <_>
      <internalNodes>
        0 -1 125828 -3.1971886754035950e-02</internalNodes>
      <leafValues>
        7.7632117271423340e-01 -1.1040510237216949e-01</leafValues></_>
    <_>
      <internalNodes>
        0 -1 158608 3.2400693744421005e-03</internalNodes>
      <leafValues>
        -1.8243163824081421e-01 4.5760554075241089e-01</leafValues></_>
    <_>
      <internalNodes>
        0 -1 127895 -1.0338895022869110e-01</internalNodes>
      <leafValues>
        -3.1961044669151306e-01 3.3392110466957092e-01</leafValues></_>
    <_>
      <internalNodes>
        0 -1 37477 2.4882776779122651e-04</internalNodes>
      <leafValues>
        -1.8784651160240173e-01 4.6887734532356262e-01</leafValues></_>
    <_>
      <internalNodes>
        0 -1 62919 2.6959795504808426e-03</internalNodes>
      <leafValues>
        -1.8915276229381561e-01 4.9218976497650146e-01</leafValues></_></weakClassifiers></stage21>
</opencv_storage>
