<?xml version="1.0"?>
<opencv_storage>
<stage16>
  <maxWeakCount>20</maxWeakCount>
  <stageThreshold>-1.2504743337631226e+00</stageThreshold>
  <weakClassifiers>
    <_>
      <internalNodes>
        0 -1 92025 -6.6169977188110352e-02</internalNodes>
      <leafValues>
        8.4615385532379150e-01 -4.0399384498596191e-01</leafValues></_>
    <_>
      <internalNodes>
        0 -1 161067 -7.5864461250603199e-03</internalNodes>
      <leafValues>
        9.6834443509578705e-02 -8.5695457458496094e-01</leafValues></_>
    <_>
      <internalNodes>
        0 -1 121316 1.0592357721179724e-03</internalNodes>
      <leafValues>
        -2.3335050046443939e-01 3.3244600892066956e-01</leafValues></_>
    <_>
      <internalNodes>
        0 -1 96786 3.5838593612425029e-04</internalNodes>
      <leafValues>
        -1.5818485617637634e-01 4.5814794301986694e-01</leafValues></_>
    <_>
      <internalNodes>
        0 -1 113926 -4.8178638098761439e-04</internalNodes>
      <leafValues>
        -5.3622359037399292e-01 1.7875325679779053e-01</leafValues></_>
    <_>
      <internalNodes>
        0 -1 154943 7.9815530625637621e-05</internalNodes>
      <leafValues>
        -2.1416366100311279e-01 3.9813512563705444e-01</leafValues></_>
    <_>
      <internalNodes>
        0 -1 121102 -8.6031225509941578e-04</internalNodes>
      <leafValues>
        3.4491610527038574e-01 -2.6400321722030640e-01</leafValues></_>
    <_>
      <internalNodes>
        0 -1 115710 9.1867640614509583e-02</internalNodes>
      <leafValues>
        -9.8008185625076294e-02 9.2174208164215088e-01</leafValues></_>
    <_>
      <internalNodes>
        0 -1 153868 -6.3173905014991760e-02</internalNodes>
      <leafValues>
        6.2745654582977295e-01 -1.1891806870698929e-01</leafValues></_>
    <_>
      <internalNodes>
        0 -1 133575 -4.6838950365781784e-03</internalNodes>
      <leafValues>
        -6.7383235692977905e-01 1.3830651342868805e-01</leafValues></_>
    <_>
      <internalNodes>
        0 -1 155227 -2.9013861421844922e-05</internalNodes>
      <leafValues>
        -4.1336190700531006e-01 2.0351013541221619e-01</leafValues></_>
    <_>
      <internalNodes>
        0 -1 154247 -7.3715823236852884e-04</internalNodes>
      <leafValues>
        -6.5499645471572876e-01 1.3412664830684662e-01</leafValues></_>
    <_>
      <internalNodes>
        0 -1 59305 6.1736523639410734e-04</internalNodes>
      <leafValues>
        -2.1554763615131378e-01 4.3014392256736755e-01</leafValues></_>
    <_>
      <internalNodes>
        0 -1 79034 -8.8176671415567398e-03</internalNodes>
      <leafValues>
        6.1632883548736572e-01 -1.9131293892860413e-01</leafValues></_>
    <_>
      <internalNodes>
        0 -1 151258 -3.4720072289928794e-04</internalNodes>
      <leafValues>
        -6.4673376083374023e-01 1.6857884824275970e-01</leafValues></_>
    <_>
      <internalNodes>
        0 -1 151258 2.9549517785198987e-04</internalNodes>
      <leafValues>
        1.6983461380004883e-01 -4.7481018304824829e-01</leafValues></_>
    <_>
      <internalNodes>
        0 -1 106596 3.6279209889471531e-03</internalNodes>
      <leafValues>
        -2.3405234515666962e-01 4.2976686358451843e-01</leafValues></_>
    <_>
      <internalNodes>
        0 -1 143984 1.1888092383742332e-02</internalNodes>
      <leafValues>
        1.4938005805015564e-01 -6.2074303627014160e-01</leafValues></_>
    <_>
      <internalNodes>
        0 -1 143865 9.7404345870018005e-03</internalNodes>
      <leafValues>
        -2.0778863131999969e-01 4.9849778413772583e-01</leafValues></_>
    <_>
      <internalNodes>
        0 -1 148046 -1.9912975840270519e-03</internalNodes>
      <leafValues>
        5.4947841167449951e-01 -1.6546712815761566e-01</leafValues></_></weakClassifiers></stage16>
</opencv_storage>
