<?xml version="1.0"?>
<opencv_storage>
<stage11>
  <maxWeakCount>14</maxWeakCount>
  <stageThreshold>-1.1224883794784546e+00</stageThreshold>
  <weakClassifiers>
    <_>
      <internalNodes>
        0 -1 131065 -2.2473210468888283e-02</internalNodes>
      <leafValues>
        3.6283186078071594e-01 -4.6967071294784546e-01</leafValues></_>
    <_>
      <internalNodes>
        0 -1 153269 -6.2503358349204063e-03</internalNodes>
      <leafValues>
        3.4942194819450378e-01 -3.2943001389503479e-01</leafValues></_>
    <_>
      <internalNodes>
        0 -1 141348 -6.7715235054492950e-03</internalNodes>
      <leafValues>
        5.3021591901779175e-01 -1.9436383247375488e-01</leafValues></_>
    <_>
      <internalNodes>
        0 -1 101958 -5.6290268898010254e-02</internalNodes>
      <leafValues>
        6.8260896205902100e-01 -1.2227822095155716e-01</leafValues></_>
    <_>
      <internalNodes>
        0 -1 480 9.5033422112464905e-03</internalNodes>
      <leafValues>
        1.2777453660964966e-01 -7.4555158615112305e-01</leafValues></_>
    <_>
      <internalNodes>
        0 -1 25528 -7.7744722366333008e-03</internalNodes>
      <leafValues>
        4.0586471557617188e-01 -2.1509875357151031e-01</leafValues></_>
    <_>
      <internalNodes>
        0 -1 98810 -4.4331565499305725e-02</internalNodes>
      <leafValues>
        5.9434336423873901e-01 -1.5912730991840363e-01</leafValues></_>
    <_>
      <internalNodes>
        0 -1 97751 -2.1550271660089493e-02</internalNodes>
      <leafValues>
        5.5545163154602051e-01 -1.5560539066791534e-01</leafValues></_>
    <_>
      <internalNodes>
        0 -1 158279 7.4561452493071556e-03</internalNodes>
      <leafValues>
        -1.2259884923696518e-01 6.6403979063034058e-01</leafValues></_>
    <_>
      <internalNodes>
        0 -1 162311 -2.3060601961333305e-05</internalNodes>
      <leafValues>
        -3.8921841979026794e-01 2.3408544063568115e-01</leafValues></_>
    <_>
      <internalNodes>
        0 -1 135052 7.6628255192190409e-04</internalNodes>
      <leafValues>
        -2.5061413645744324e-01 3.4639218449592590e-01</leafValues></_>
    <_>
      <internalNodes>
        0 -1 135375 8.5562001913785934e-04</internalNodes>
      <leafValues>
        -2.8793525695800781e-01 2.8697475790977478e-01</leafValues></_>
    <_>
      <internalNodes>
        0 -1 71036 -4.5346282422542572e-03</internalNodes>
      <leafValues>
        -6.4270758628845215e-01 1.7292594909667969e-01</leafValues></_>
    <_>
      <internalNodes>
        0 -1 55593 -2.1721837110817432e-03</internalNodes>
      <leafValues>
        5.3124415874481201e-01 -2.0529842376708984e-01</leafValues></_></weakClassifiers></stage11>
</opencv_storage>
