<?xml version="1.0"?>
<opencv_storage>
<stage14>
  <maxWeakCount>17</maxWeakCount>
  <stageThreshold>-9.2184644937515259e-01</stageThreshold>
  <weakClassifiers>
    <_>
      <internalNodes>
        0 -1 31195 -1.7813166603446007e-02</internalNodes>
      <leafValues>
        -3.8345864415168762e-01 1.</leafValues></_>
    <_>
      <internalNodes>
        0 -1 120645 -7.7168026473373175e-04</internalNodes>
      <leafValues>
        2.6464816927909851e-01 -2.8373742103576660e-01</leafValues></_>
    <_>
      <internalNodes>
        0 -1 13376 2.9656032565981150e-03</internalNodes>
      <leafValues>
        1.3503424823284149e-01 -5.5293202400207520e-01</leafValues></_>
    <_>
      <internalNodes>
        0 -1 162144 5.6736171245574951e-03</internalNodes>
      <leafValues>
        1.5316307544708252e-01 -7.7609676122665405e-01</leafValues></_>
    <_>
      <internalNodes>
        0 -1 69833 2.4967308854684234e-04</internalNodes>
      <leafValues>
        -2.1371269226074219e-01 3.5300430655479431e-01</leafValues></_>
    <_>
      <internalNodes>
        0 -1 146894 -1.6595092602074146e-03</internalNodes>
      <leafValues>
        3.5844147205352783e-01 -2.0119957625865936e-01</leafValues></_>
    <_>
      <internalNodes>
        0 -1 94 -8.1646647304296494e-03</internalNodes>
      <leafValues>
        -7.4990743398666382e-01 1.2153080850839615e-01</leafValues></_>
    <_>
      <internalNodes>
        0 -1 130807 1.0894259437918663e-02</internalNodes>
      <leafValues>
        -2.7723821997642517e-01 2.9340419173240662e-01</leafValues></_>
    <_>
      <internalNodes>
        0 -1 151575 2.3337281891144812e-04</internalNodes>
      <leafValues>
        -2.7742588520050049e-01 3.9349350333213806e-01</leafValues></_>
    <_>
      <internalNodes>
        0 -1 21594 3.8512968458235264e-03</internalNodes>
      <leafValues>
        -2.6283273100852966e-01 3.1669208407402039e-01</leafValues></_>
    <_>
      <internalNodes>
        0 -1 35477 -8.8283175136893988e-04</internalNodes>
      <leafValues>
        4.5078721642494202e-01 -1.6280934214591980e-01</leafValues></_>
    <_>
      <internalNodes>
        0 -1 147228 -3.7486478686332703e-04</internalNodes>
      <leafValues>
        -4.5567190647125244e-01 1.6959878802299500e-01</leafValues></_>
    <_>
      <internalNodes>
        0 -1 150980 -5.0514540635049343e-04</internalNodes>
      <leafValues>
        3.9763689041137695e-01 -2.0341567695140839e-01</leafValues></_>
    <_>
      <internalNodes>
        0 -1 148824 2.3525238037109375e-02</internalNodes>
      <leafValues>
        -2.3917049169540405e-01 3.9569625258445740e-01</leafValues></_>
    <_>
      <internalNodes>
        0 -1 104394 4.1478083585388958e-04</internalNodes>
      <leafValues>
        -2.0405644178390503e-01 4.1840237379074097e-01</leafValues></_>
    <_>
      <internalNodes>
        0 -1 162102 2.6071104221045971e-03</internalNodes>
      <leafValues>
        1.0750390589237213e-01 -7.8067195415496826e-01</leafValues></_>
    <_>
      <internalNodes>
        0 -1 121836 -5.1982137374579906e-03</internalNodes>
      <leafValues>
        -8.7930667400360107e-01 6.8265512585639954e-02</leafValues></_></weakClassifiers></stage14>
</opencv_storage>
