<?xml version="1.0"?>
<opencv_storage>
<stage17>
  <maxWeakCount>14</maxWeakCount>
  <stageThreshold>-1.3358058929443359e+00</stageThreshold>
  <weakClassifiers>
    <_>
      <internalNodes>
        0 -1 154642 2.3470522137358785e-04</internalNodes>
      <leafValues>
        -5.2304607629776001e-01 1.6230367124080658e-01</leafValues></_>
    <_>
      <internalNodes>
        0 -1 161634 -9.8997156601399183e-04</internalNodes>
      <leafValues>
        3.9210903644561768e-01 -2.8342726826667786e-01</leafValues></_>
    <_>
      <internalNodes>
        0 -1 161082 -9.0189371258020401e-03</internalNodes>
      <leafValues>
        1.4181770384311676e-01 -6.2364262342453003e-01</leafValues></_>
    <_>
      <internalNodes>
        0 -1 154646 2.0830499124713242e-04</internalNodes>
      <leafValues>
        1.7467473447322845e-01 -4.1561174392700195e-01</leafValues></_>
    <_>
      <internalNodes>
        0 -1 96931 2.0475789904594421e-02</internalNodes>
      <leafValues>
        -1.4662696421146393e-01 5.9520637989044189e-01</leafValues></_>
    <_>
      <internalNodes>
        0 -1 20514 -3.3239358663558960e-01</internalNodes>
      <leafValues>
        -1.8201886117458344e-01 5.2332192659378052e-01</leafValues></_>
    <_>
      <internalNodes>
        0 -1 142158 -1.4471787726506591e-03</internalNodes>
      <leafValues>
        5.0139635801315308e-01 -1.9024525582790375e-01</leafValues></_>
    <_>
      <internalNodes>
        0 -1 131686 -6.2808459624648094e-03</internalNodes>
      <leafValues>
        -3.0796080827713013e-01 3.2446187734603882e-01</leafValues></_>
    <_>
      <internalNodes>
        0 -1 147686 -4.1874608723446727e-04</internalNodes>
      <leafValues>
        3.4814047813415527e-01 -3.0418142676353455e-01</leafValues></_>
    <_>
      <internalNodes>
        0 -1 155236 1.4064650167711079e-04</internalNodes>
      <leafValues>
        2.2822281718254089e-01 -4.2762890458106995e-01</leafValues></_>
    <_>
      <internalNodes>
        0 -1 148261 8.4317065775394440e-03</internalNodes>
      <leafValues>
        1.5210942924022675e-01 -5.5706065893173218e-01</leafValues></_>
    <_>
      <internalNodes>
        0 -1 138619 -2.9401684878394008e-04</internalNodes>
      <leafValues>
        3.8727062940597534e-01 -2.6664221286773682e-01</leafValues></_>
    <_>
      <internalNodes>
        0 -1 138343 4.3698661029338837e-03</internalNodes>
      <leafValues>
        -1.3665659725666046e-01 6.1162126064300537e-01</leafValues></_>
    <_>
      <internalNodes>
        0 -1 31411 2.5107800029218197e-03</internalNodes>
      <leafValues>
        1.9754201173782349e-01 -4.7853004932403564e-01</leafValues></_></weakClassifiers></stage17>
</opencv_storage>
