<?xml version="1.0"?>
<opencv_storage>
<stage8>
  <maxWeakCount>12</maxWeakCount>
  <stageThreshold>-9.3640875816345215e-01</stageThreshold>
  <weakClassifiers>
    <_>
      <internalNodes>
        0 -1 23769 5.9563834220170975e-02</internalNodes>
      <leafValues>
        -4.2313787341117859e-01 6.2711864709854126e-01</leafValues></_>
    <_>
      <internalNodes>
        0 -1 88450 -1.0998411476612091e-01</internalNodes>
      <leafValues>
        4.2028594762086868e-02 -9.0617907047271729e-01</leafValues></_>
    <_>
      <internalNodes>
        0 -1 260 -1.8956830725073814e-02</internalNodes>
      <leafValues>
        -6.4839130640029907e-01 1.7799724638462067e-01</leafValues></_>
    <_>
      <internalNodes>
        0 -1 151375 9.6569565357640386e-05</internalNodes>
      <leafValues>
        -2.7933472394943237e-01 3.1784865260124207e-01</leafValues></_>
    <_>
      <internalNodes>
        0 -1 150984 -5.1710486877709627e-04</internalNodes>
      <leafValues>
        -7.0834934711456299e-01 1.1167433112859726e-01</leafValues></_>
    <_>
      <internalNodes>
        0 -1 90549 -1.3872462511062622e-01</internalNodes>
      <leafValues>
        -1. 7.9426176846027374e-02</leafValues></_>
    <_>
      <internalNodes>
        0 -1 69330 -2.6828352361917496e-02</internalNodes>
      <leafValues>
        6.4759576320648193e-01 -1.7821797728538513e-01</leafValues></_>
    <_>
      <internalNodes>
        0 -1 157112 2.9927759896963835e-04</internalNodes>
      <leafValues>
        -2.7901753783226013e-01 3.9332655072212219e-01</leafValues></_>
    <_>
      <internalNodes>
        0 -1 144248 -4.4616788625717163e-02</internalNodes>
      <leafValues>
        4.6405729651451111e-01 -2.2482450306415558e-01</leafValues></_>
    <_>
      <internalNodes>
        0 -1 25803 -2.0463870838284492e-02</internalNodes>
      <leafValues>
        -8.8920640945434570e-01 1.0094396024942398e-01</leafValues></_>
    <_>
      <internalNodes>
        0 -1 55370 1.3798248767852783e-01</internalNodes>
      <leafValues>
        8.7662421166896820e-02 -8.3477020263671875e-01</leafValues></_>
    <_>
      <internalNodes>
        0 -1 143021 -8.4349373355507851e-03</internalNodes>
      <leafValues>
        2.4411664903163910e-01 -3.6756187677383423e-01</leafValues></_></weakClassifiers></stage8>
</opencv_storage>
