<?xml version="1.0"?>
<opencv_storage>
<stage9>
  <maxWeakCount>15</maxWeakCount>
  <stageThreshold>-1.0242332220077515e+00</stageThreshold>
  <weakClassifiers>
    <_>
      <internalNodes>
        0 -1 91488 1.1017584055662155e-01</internalNodes>
      <leafValues>
        -4.0993788838386536e-01 7.3913043737411499e-01</leafValues></_>
    <_>
      <internalNodes>
        0 -1 144935 -4.3784473091363907e-03</internalNodes>
      <leafValues>
        1.9293662905693054e-01 -4.4071850180625916e-01</leafValues></_>
    <_>
      <internalNodes>
        0 -1 35557 -1.2279691174626350e-02</internalNodes>
      <leafValues>
        4.4055736064910889e-01 -1.9177466630935669e-01</leafValues></_>
    <_>
      <internalNodes>
        0 -1 150980 2.3723003687337041e-04</internalNodes>
      <leafValues>
        -1.9440710544586182e-01 4.3129286170005798e-01</leafValues></_>
    <_>
      <internalNodes>
        0 -1 151850 1.0463681071996689e-02</internalNodes>
      <leafValues>
        1.1452469974756241e-01 -8.1280052661895752e-01</leafValues></_>
    <_>
      <internalNodes>
        0 -1 151132 -1.7747003585100174e-04</internalNodes>
      <leafValues>
        -4.3273276090621948e-01 2.0057517290115356e-01</leafValues></_>
    <_>
      <internalNodes>
        0 -1 15681 -4.8723705112934113e-02</internalNodes>
      <leafValues>
        8.4703099727630615e-01 -1.0114953666925430e-01</leafValues></_>
    <_>
      <internalNodes>
        0 -1 12573 1.0884582996368408e-02</internalNodes>
      <leafValues>
        -1.7298519611358643e-01 4.8332434892654419e-01</leafValues></_>
    <_>
      <internalNodes>
        0 -1 78655 2.4216920137405396e-03</internalNodes>
      <leafValues>
        -1.6826446354389191e-01 4.8470798134803772e-01</leafValues></_>
    <_>
      <internalNodes>
        0 -1 143357 -6.0564489103853703e-04</internalNodes>
      <leafValues>
        -5.3501439094543457e-01 1.6120201349258423e-01</leafValues></_>
    <_>
      <internalNodes>
        0 -1 88535 -6.2637554947286844e-04</internalNodes>
      <leafValues>
        4.4102215766906738e-01 -1.9694316387176514e-01</leafValues></_>
    <_>
      <internalNodes>
        0 -1 114194 -9.5135124865919352e-04</internalNodes>
      <leafValues>
        -7.7107268571853638e-01 1.2893550097942352e-01</leafValues></_>
    <_>
      <internalNodes>
        0 -1 105558 4.5604552142322063e-03</internalNodes>
      <leafValues>
        -2.6815307140350342e-01 4.1913470625877380e-01</leafValues></_>
    <_>
      <internalNodes>
        0 -1 44899 -2.9881525784730911e-02</internalNodes>
      <leafValues>
        2.6947820186614990e-01 -3.6709788441658020e-01</leafValues></_>
    <_>
      <internalNodes>
        0 -1 110273 7.1409344673156738e-02</internalNodes>
      <leafValues>
        -9.3277111649513245e-02 8.3931219577789307e-01</leafValues></_></weakClassifiers></stage9>
</opencv_storage>
